digraph Tree {
node [shape=box] ;
0 [label="mean_rmse <= 0.046\ngini = 0.9\nsamples = 800\nvalue = [84, 78, 79, 75, 80, 90, 81, 79, 75, 79]"] ;
1 [label="std_rolloff <= 1061.424\ngini = 0.467\nsamples = 86\nvalue = [0, 60, 3, 0, 1, 18, 1, 0, 2, 1]"] ;
0 -> 1 [labeldistance=2.5, labelangle=45, headlabel="True"] ;
2 [label="mean_mfcc3 <= 45.14\ngini = 0.195\nsamples = 65\nvalue = [0, 58, 0, 0, 0, 6, 1, 0, 0, 0]"] ;
1 -> 2 ;
3 [label="std_chroma <= 0.283\ngini = 0.033\nsamples = 59\nvalue = [0, 58, 0, 0, 0, 1, 0, 0, 0, 0]"] ;
2 -> 3 ;
4 [label="gini = 0.0\nsamples = 58\nvalue = [0, 58, 0, 0, 0, 0, 0, 0, 0, 0]"] ;
3 -> 4 ;
5 [label="gini = 0.0\nsamples = 1\nvalue = [0, 0, 0, 0, 0, 1, 0, 0, 0, 0]"] ;
3 -> 5 ;
6 [label="mean_mfcc11 <= 13.747\ngini = 0.278\nsamples = 6\nvalue = [0, 0, 0, 0, 0, 5, 1, 0, 0, 0]"] ;
2 -> 6 ;
7 [label="gini = 0.0\nsamples = 5\nvalue = [0, 0, 0, 0, 0, 5, 0, 0, 0, 0]"] ;
6 -> 7 ;
8 [label="gini = 0.0\nsamples = 1\nvalue = [0, 0, 0, 0, 0, 0, 1, 0, 0, 0]"] ;
6 -> 8 ;
9 [label="std_mfcc3 <= 15.074\ngini = 0.63\nsamples = 21\nvalue = [0, 2, 3, 0, 1, 12, 0, 0, 2, 1]"] ;
1 -> 9 ;
10 [label="mean_rolloff <= 2052.303\ngini = 0.142\nsamples = 13\nvalue = [0, 1, 0, 0, 0, 12, 0, 0, 0, 0]"] ;
9 -> 10 ;
11 [label="gini = 0.0\nsamples = 1\nvalue = [0, 1, 0, 0, 0, 0, 0, 0, 0, 0]"] ;
10 -> 11 ;
12 [label="gini = 0.0\nsamples = 12\nvalue = [0, 0, 0, 0, 0, 12, 0, 0, 0, 0]"] ;
10 -> 12 ;
13 [label="std_chroma <= 0.286\ngini = 0.75\nsamples = 8\nvalue = [0, 1, 3, 0, 1, 0, 0, 0, 2, 1]"] ;
9 -> 13 ;
14 [label="mean_mfcc9 <= -1.599\ngini = 0.72\nsamples = 5\nvalue = [0, 1, 0, 0, 1, 0, 0, 0, 2, 1]"] ;
13 -> 14 ;
15 [label="gini = 0.0\nsamples = 2\nvalue = [0, 0, 0, 0, 0, 0, 0, 0, 2, 0]"] ;
14 -> 15 ;
16 [label="std_centroid <= 470.824\ngini = 0.667\nsamples = 3\nvalue = [0, 1, 0, 0, 1, 0, 0, 0, 0, 1]"] ;
14 -> 16 ;
17 [label="gini = 0.0\nsamples = 1\nvalue = [0, 1, 0, 0, 0, 0, 0, 0, 0, 0]"] ;
16 -> 17 ;
18 [label="mean_mfcc9 <= 9.068\ngini = 0.5\nsamples = 2\nvalue = [0, 0, 0, 0, 1, 0, 0, 0, 0, 1]"] ;
16 -> 18 ;
19 [label="gini = 0.0\nsamples = 1\nvalue = [0, 0, 0, 0, 0, 0, 0, 0, 0, 1]"] ;
18 -> 19 ;
20 [label="gini = 0.0\nsamples = 1\nvalue = [0, 0, 0, 0, 1, 0, 0, 0, 0, 0]"] ;
18 -> 20 ;
21 [label="gini = 0.0\nsamples = 3\nvalue = [0, 0, 3, 0, 0, 0, 0, 0, 0, 0]"] ;
13 -> 21 ;
22 [label="std_contrast <= 8.445\ngini = 0.894\nsamples = 714\nvalue = [84, 18, 76, 75, 79, 72, 80, 79, 73, 78]"] ;
0 -> 22 [labeldistance=2.5, labelangle=-45, headlabel="False"] ;
23 [label="std_rmse <= 0.074\ngini = 0.876\nsamples = 474\nvalue = [42, 18, 68, 40, 42, 71, 2, 79, 67, 45]"] ;
22 -> 23 ;
24 [label="std_centroid <= 473.787\ngini = 0.868\nsamples = 378\nvalue = [38, 18, 68, 37, 18, 70, 2, 25, 57, 45]"] ;
23 -> 24 ;
25 [label="mean_mfcc2 <= -27.421\ngini = 0.68\nsamples = 90\nvalue = [11, 16, 13, 1, 0, 45, 0, 0, 0, 4]"] ;
24 -> 25 ;
26 [label="mean_mfcc2 <= -45.038\ngini = 0.608\nsamples = 21\nvalue = [0, 12, 2, 0, 0, 3, 0, 0, 0, 4]"] ;
25 -> 26 ;
27 [label="mean_mfcc3 <= 35.293\ngini = 0.571\nsamples = 7\nvalue = [0, 1, 2, 0, 0, 0, 0, 0, 0, 4]"] ;
26 -> 27 ;
28 [label="gini = 0.0\nsamples = 2\nvalue = [0, 0, 2, 0, 0, 0, 0, 0, 0, 0]"] ;
27 -> 28 ;
29 [label="std_mfcc3 <= 9.181\ngini = 0.32\nsamples = 5\nvalue = [0, 1, 0, 0, 0, 0, 0, 0, 0, 4]"] ;
27 -> 29 ;
30 [label="gini = 0.0\nsamples = 1\nvalue = [0, 1, 0, 0, 0, 0, 0, 0, 0, 0]"] ;
29 -> 30 ;
31 [label="gini = 0.0\nsamples = 4\nvalue = [0, 0, 0, 0, 0, 0, 0, 0, 0, 4]"] ;
29 -> 31 ;
32 [label="std_mfcc3 <= 13.529\ngini = 0.337\nsamples = 14\nvalue = [0, 11, 0, 0, 0, 3, 0, 0, 0, 0]"] ;
26 -> 32 ;
33 [label="gini = 0.0\nsamples = 11\nvalue = [0, 11, 0, 0, 0, 0, 0, 0, 0, 0]"] ;
32 -> 33 ;
34 [label="gini = 0.0\nsamples = 3\nvalue = [0, 0, 0, 0, 0, 3, 0, 0, 0, 0]"] ;
32 -> 34 ;
35 [label="mean_mfcc4 <= -0.653\ngini = 0.575\nsamples = 69\nvalue = [11, 4, 11, 1, 0, 42, 0, 0, 0, 0]"] ;
25 -> 35 ;
36 [label="std_mfcc8 <= 9.789\ngini = 0.181\nsamples = 31\nvalue = [0, 1, 1, 1, 0, 28, 0, 0, 0, 0]"] ;
35 -> 36 ;
37 [label="mean_mfcc10 <= -12.967\ngini = 0.067\nsamples = 29\nvalue = [0, 0, 0, 1, 0, 28, 0, 0, 0, 0]"] ;
36 -> 37 ;
38 [label="gini = 0.0\nsamples = 1\nvalue = [0, 0, 0, 1, 0, 0, 0, 0, 0, 0]"] ;
37 -> 38 ;
39 [label="gini = 0.0\nsamples = 28\nvalue = [0, 0, 0, 0, 0, 28, 0, 0, 0, 0]"] ;
37 -> 39 ;
40 [label="std_bandwidth <= 279.346\ngini = 0.5\nsamples = 2\nvalue = [0, 1, 1, 0, 0, 0, 0, 0, 0, 0]"] ;
36 -> 40 ;
41 [label="gini = 0.0\nsamples = 1\nvalue = [0, 1, 0, 0, 0, 0, 0, 0, 0, 0]"] ;
40 -> 41 ;
42 [label="gini = 0.0\nsamples = 1\nvalue = [0, 0, 1, 0, 0, 0, 0, 0, 0, 0]"] ;
40 -> 42 ;
43 [label="mean_mfcc3 <= 39.165\ngini = 0.705\nsamples = 38\nvalue = [11, 3, 10, 0, 0, 14, 0, 0, 0, 0]"] ;
35 -> 43 ;
44 [label="std_mfcc5 <= 10.451\ngini = 0.594\nsamples = 24\nvalue = [0, 3, 9, 0, 0, 12, 0, 0, 0, 0]"] ;
43 -> 44 ;
45 [label="gini = 0.418\nsamples = 15\nvalue = [0, 3, 1, 0, 0, 11, 0, 0, 0, 0]"] ;
44 -> 45 ;
46 [label="gini = 0.198\nsamples = 9\nvalue = [0, 0, 8, 0, 0, 1, 0, 0, 0, 0]"] ;
44 -> 46 ;
47 [label="mean_mfcc12 <= 7.069\ngini = 0.357\nsamples = 14\nvalue = [11, 0, 1, 0, 0, 2, 0, 0, 0, 0]"] ;
43 -> 47 ;
48 [label="gini = 0.0\nsamples = 2\nvalue = [0, 0, 0, 0, 0, 2, 0, 0, 0, 0]"] ;
47 -> 48 ;
49 [label="gini = 0.153\nsamples = 12\nvalue = [11, 0, 1, 0, 0, 0, 0, 0, 0, 0]"] ;
47 -> 49 ;
50 [label="std_mfcc4 <= 15.605\ngini = 0.861\nsamples = 288\nvalue = [27, 2, 55, 36, 18, 25, 2, 25, 57, 41]"] ;
24 -> 50 ;
51 [label="mean_mfcc8 <= 2.953\ngini = 0.854\nsamples = 205\nvalue = [9, 2, 42, 35, 10, 25, 2, 24, 18, 38]"] ;
50 -> 51 ;
52 [label="std_mfcc4 <= 9.609\ngini = 0.821\nsamples = 168\nvalue = [9, 2, 42, 34, 2, 24, 0, 9, 10, 36]"] ;
51 -> 52 ;
53 [label="mean_contrast <= 17.96\ngini = 0.633\nsamples = 34\nvalue = [0, 0, 1, 4, 0, 18, 0, 1, 1, 9]"] ;
52 -> 53 ;
54 [label="gini = 0.37\nsamples = 9\nvalue = [0, 0, 0, 1, 0, 1, 0, 0, 0, 7]"] ;
53 -> 54 ;
55 [label="gini = 0.512\nsamples = 25\nvalue = [0, 0, 1, 3, 0, 17, 0, 1, 1, 2]"] ;
53 -> 55 ;
56 [label="mean_chroma <= 0.525\ngini = 0.801\nsamples = 134\nvalue = [9, 2, 41, 30, 2, 6, 0, 8, 9, 27]"] ;
52 -> 56 ;
57 [label="gini = 0.779\nsamples = 92\nvalue = [8, 1, 34, 5, 2, 6, 0, 6, 8, 22]"] ;
56 -> 57 ;
58 [label="gini = 0.6\nsamples = 42\nvalue = [1, 1, 7, 25, 0, 0, 0, 2, 1, 5]"] ;
56 -> 58 ;
59 [label="mean_mfcc5 <= 9.237\ngini = 0.735\nsamples = 37\nvalue = [0, 0, 0, 1, 8, 1, 2, 15, 8, 2]"] ;
51 -> 59 ;
60 [label="mean_mfcc4 <= 3.394\ngini = 0.328\nsamples = 16\nvalue = [0, 0, 0, 1, 1, 0, 0, 13, 0, 1]"] ;
59 -> 60 ;
61 [label="gini = 0.5\nsamples = 2\nvalue = [0, 0, 0, 1, 0, 0, 0, 0, 0, 1]"] ;
60 -> 61 ;
62 [label="gini = 0.133\nsamples = 14\nvalue = [0, 0, 0, 0, 1, 0, 0, 13, 0, 0]"] ;
60 -> 62 ;
63 [label="bpm <= 128.283\ngini = 0.721\nsamples = 21\nvalue = [0, 0, 0, 0, 7, 1, 2, 2, 8, 1]"] ;
59 -> 63 ;
64 [label="gini = 0.651\nsamples = 13\nvalue = [0, 0, 0, 0, 7, 0, 2, 2, 1, 1]"] ;
63 -> 64 ;
65 [label="gini = 0.219\nsamples = 8\nvalue = [0, 0, 0, 0, 0, 1, 0, 0, 7, 0]"] ;
63 -> 65 ;
66 [label="mean_mfcc8 <= -9.492\ngini = 0.697\nsamples = 83\nvalue = [18, 0, 13, 1, 8, 0, 0, 1, 39, 3]"] ;
50 -> 66 ;
67 [label="std_mfcc9 <= 10.769\ngini = 0.642\nsamples = 27\nvalue = [13, 0, 9, 0, 1, 0, 0, 0, 3, 1]"] ;
66 -> 67 ;
68 [label="mean_mfcc11 <= 6.712\ngini = 0.422\nsamples = 16\nvalue = [12, 0, 1, 0, 1, 0, 0, 0, 1, 1]"] ;
67 -> 68 ;
69 [label="gini = 0.142\nsamples = 13\nvalue = [12, 0, 1, 0, 0, 0, 0, 0, 0, 0]"] ;
68 -> 69 ;
70 [label="gini = 0.667\nsamples = 3\nvalue = [0, 0, 0, 0, 1, 0, 0, 0, 1, 1]"] ;
68 -> 70 ;
71 [label="mean_mfcc5 <= 22.561\ngini = 0.43\nsamples = 11\nvalue = [1, 0, 8, 0, 0, 0, 0, 0, 2, 0]"] ;
67 -> 71 ;
72 [label="gini = 0.0\nsamples = 8\nvalue = [0, 0, 8, 0, 0, 0, 0, 0, 0, 0]"] ;
71 -> 72 ;
73 [label="gini = 0.444\nsamples = 3\nvalue = [1, 0, 0, 0, 0, 0, 0, 0, 2, 0]"] ;
71 -> 73 ;
74 [label="mean_mfcc12 <= 7.77\ngini = 0.556\nsamples = 56\nvalue = [5, 0, 4, 1, 7, 0, 0, 1, 36, 2]"] ;
66 -> 74 ;
75 [label="mean_contrast <= 20.705\ngini = 0.714\nsamples = 14\nvalue = [3, 0, 1, 1, 6, 0, 0, 0, 3, 0]"] ;
74 -> 75 ;
76 [label="gini = 0.612\nsamples = 11\nvalue = [0, 0, 1, 1, 6, 0, 0, 0, 3, 0]"] ;
75 -> 76 ;
77 [label="gini = 0.0\nsamples = 3\nvalue = [3, 0, 0, 0, 0, 0, 0, 0, 0, 0]"] ;
75 -> 77 ;
78 [label="mean_chroma <= 0.416\ngini = 0.372\nsamples = 42\nvalue = [2, 0, 3, 0, 1, 0, 0, 1, 33, 2]"] ;
74 -> 78 ;
79 [label="gini = 0.64\nsamples = 5\nvalue = [2, 0, 2, 0, 0, 0, 0, 0, 0, 1]"] ;
78 -> 79 ;
80 [label="gini = 0.202\nsamples = 37\nvalue = [0, 0, 1, 0, 1, 0, 0, 1, 33, 1]"] ;
78 -> 80 ;
81 [label="mean_mfcc3 <= 28.307\ngini = 0.607\nsamples = 96\nvalue = [4, 0, 0, 3, 24, 1, 0, 54, 10, 0]"] ;
23 -> 81 ;
82 [label="mean_centroid <= 2832.829\ngini = 0.404\nsamples = 70\nvalue = [2, 0, 0, 1, 9, 0, 0, 53, 5, 0]"] ;
81 -> 82 ;
83 [label="mean_mfcc10 <= -3.481\ngini = 0.71\nsamples = 18\nvalue = [2, 0, 0, 1, 7, 0, 0, 6, 2, 0]"] ;
82 -> 83 ;
84 [label="gini = 0.0\nsamples = 6\nvalue = [0, 0, 0, 0, 0, 0, 0, 6, 0, 0]"] ;
83 -> 84 ;
85 [label="std_centroid <= 944.71\ngini = 0.597\nsamples = 12\nvalue = [2, 0, 0, 1, 7, 0, 0, 0, 2, 0]"] ;
83 -> 85 ;
86 [label="mean_mfcc1 <= 117.534\ngini = 0.64\nsamples = 5\nvalue = [2, 0, 0, 1, 0, 0, 0, 0, 2, 0]"] ;
85 -> 86 ;
87 [label="gini = 0.444\nsamples = 3\nvalue = [0, 0, 0, 1, 0, 0, 0, 0, 2, 0]"] ;
86 -> 87 ;
88 [label="gini = 0.0\nsamples = 2\nvalue = [2, 0, 0, 0, 0, 0, 0, 0, 0, 0]"] ;
86 -> 88 ;
89 [label="gini = 0.0\nsamples = 7\nvalue = [0, 0, 0, 0, 7, 0, 0, 0, 0, 0]"] ;
85 -> 89 ;
90 [label="mean_contrast <= 19.477\ngini = 0.178\nsamples = 52\nvalue = [0, 0, 0, 0, 2, 0, 0, 47, 3, 0]"] ;
82 -> 90 ;
91 [label="mean_zcr <= 0.21\ngini = 0.114\nsamples = 50\nvalue = [0, 0, 0, 0, 2, 0, 0, 47, 1, 0]"] ;
90 -> 91 ;
92 [label="std_mfcc11 <= 10.495\ngini = 0.041\nsamples = 48\nvalue = [0, 0, 0, 0, 1, 0, 0, 47, 0, 0]"] ;
91 -> 92 ;
93 [label="gini = 0.0\nsamples = 46\nvalue = [0, 0, 0, 0, 0, 0, 0, 46, 0, 0]"] ;
92 -> 93 ;
94 [label="gini = 0.5\nsamples = 2\nvalue = [0, 0, 0, 0, 1, 0, 0, 1, 0, 0]"] ;
92 -> 94 ;
95 [label="mean_mfcc10 <= -2.305\ngini = 0.5\nsamples = 2\nvalue = [0, 0, 0, 0, 1, 0, 0, 0, 1, 0]"] ;
91 -> 95 ;
96 [label="gini = 0.0\nsamples = 1\nvalue = [0, 0, 0, 0, 1, 0, 0, 0, 0, 0]"] ;
95 -> 96 ;
97 [label="gini = 0.0\nsamples = 1\nvalue = [0, 0, 0, 0, 0, 0, 0, 0, 1, 0]"] ;
95 -> 97 ;
98 [label="gini = 0.0\nsamples = 2\nvalue = [0, 0, 0, 0, 0, 0, 0, 0, 2, 0]"] ;
90 -> 98 ;
99 [label="mean_mfcc0 <= -103.007\ngini = 0.615\nsamples = 26\nvalue = [2, 0, 0, 2, 15, 1, 0, 1, 5, 0]"] ;
81 -> 99 ;
100 [label="std_centroid <= 902.161\ngini = 0.711\nsamples = 11\nvalue = [2, 0, 0, 1, 2, 1, 0, 0, 5, 0]"] ;
99 -> 100 ;
101 [label="std_mfcc2 <= 32.411\ngini = 0.722\nsamples = 6\nvalue = [2, 0, 0, 1, 2, 1, 0, 0, 0, 0]"] ;
100 -> 101 ;
102 [label="std_mfcc7 <= 10.733\ngini = 0.625\nsamples = 4\nvalue = [0, 0, 0, 1, 2, 1, 0, 0, 0, 0]"] ;
101 -> 102 ;
103 [label="gini = 0.0\nsamples = 2\nvalue = [0, 0, 0, 0, 2, 0, 0, 0, 0, 0]"] ;
102 -> 103 ;
104 [label="gini = 0.5\nsamples = 2\nvalue = [0, 0, 0, 1, 0, 1, 0, 0, 0, 0]"] ;
102 -> 104 ;
105 [label="gini = 0.0\nsamples = 2\nvalue = [2, 0, 0, 0, 0, 0, 0, 0, 0, 0]"] ;
101 -> 105 ;
106 [label="gini = 0.0\nsamples = 5\nvalue = [0, 0, 0, 0, 0, 0, 0, 0, 5, 0]"] ;
100 -> 106 ;
107 [label="std_rmse <= 0.076\ngini = 0.24\nsamples = 15\nvalue = [0, 0, 0, 1, 13, 0, 0, 1, 0, 0]"] ;
99 -> 107 ;
108 [label="gini = 0.0\nsamples = 1\nvalue = [0, 0, 0, 1, 0, 0, 0, 0, 0, 0]"] ;
107 -> 108 ;
109 [label="mean_rolloff <= 7564.657\ngini = 0.133\nsamples = 14\nvalue = [0, 0, 0, 0, 13, 0, 0, 1, 0, 0]"] ;
107 -> 109 ;
110 [label="gini = 0.0\nsamples = 13\nvalue = [0, 0, 0, 0, 13, 0, 0, 0, 0, 0]"] ;
109 -> 110 ;
111 [label="gini = 0.0\nsamples = 1\nvalue = [0, 0, 0, 0, 0, 0, 0, 1, 0, 0]"] ;
109 -> 111 ;
112 [label="mean_contrast <= 21.127\ngini = 0.798\nsamples = 240\nvalue = [42, 0, 8, 35, 37, 1, 78, 0, 6, 33]"] ;
22 -> 112 ;
113 [label="std_mfcc10 <= 7.433\ngini = 0.683\nsamples = 135\nvalue = [6, 0, 0, 13, 32, 1, 66, 0, 4, 13]"] ;
112 -> 113 ;
114 [label="mean_mfcc8 <= -19.667\ngini = 0.403\nsamples = 79\nvalue = [2, 0, 0, 4, 2, 1, 60, 0, 0, 10]"] ;
113 -> 114 ;
115 [label="mean_bandwidth <= 2230.753\ngini = 0.545\nsamples = 11\nvalue = [0, 0, 0, 2, 0, 1, 1, 0, 0, 7]"] ;
114 -> 115 ;
116 [label="gini = 0.0\nsamples = 7\nvalue = [0, 0, 0, 0, 0, 0, 0, 0, 0, 7]"] ;
115 -> 116 ;
117 [label="mean_mfcc11 <= 13.725\ngini = 0.625\nsamples = 4\nvalue = [0, 0, 0, 2, 0, 1, 1, 0, 0, 0]"] ;
115 -> 117 ;
118 [label="mean_mfcc2 <= -21.68\ngini = 0.5\nsamples = 2\nvalue = [0, 0, 0, 0, 0, 1, 1, 0, 0, 0]"] ;
117 -> 118 ;
119 [label="gini = 0.0\nsamples = 1\nvalue = [0, 0, 0, 0, 0, 0, 1, 0, 0, 0]"] ;
118 -> 119 ;
120 [label="gini = 0.0\nsamples = 1\nvalue = [0, 0, 0, 0, 0, 1, 0, 0, 0, 0]"] ;
118 -> 120 ;
121 [label="gini = 0.0\nsamples = 2\nvalue = [0, 0, 0, 2, 0, 0, 0, 0, 0, 0]"] ;
117 -> 121 ;
122 [label="std_mfcc9 <= 8.104\ngini = 0.243\nsamples = 68\nvalue = [2, 0, 0, 2, 2, 0, 59, 0, 0, 3]"] ;
114 -> 122 ;
123 [label="std_rmse <= 0.042\ngini = 0.073\nsamples = 53\nvalue = [0, 0, 0, 0, 1, 0, 51, 0, 0, 1]"] ;
122 -> 123 ;
124 [label="gini = 0.0\nsamples = 46\nvalue = [0, 0, 0, 0, 0, 0, 46, 0, 0, 0]"] ;
123 -> 124 ;
125 [label="std_rmse <= 0.044\ngini = 0.449\nsamples = 7\nvalue = [0, 0, 0, 0, 1, 0, 5, 0, 0, 1]"] ;
123 -> 125 ;
126 [label="gini = 0.5\nsamples = 2\nvalue = [0, 0, 0, 0, 1, 0, 0, 0, 0, 1]"] ;
125 -> 126 ;
127 [label="gini = 0.0\nsamples = 5\nvalue = [0, 0, 0, 0, 0, 0, 5, 0, 0, 0]"] ;
125 -> 127 ;
128 [label="std_mfcc7 <= 7.137\ngini = 0.658\nsamples = 15\nvalue = [2, 0, 0, 2, 1, 0, 8, 0, 0, 2]"] ;
122 -> 128 ;
129 [label="mean_mfcc1 <= 99.107\ngini = 0.64\nsamples = 5\nvalue = [1, 0, 0, 2, 0, 0, 0, 0, 0, 2]"] ;
128 -> 129 ;
130 [label="gini = 0.0\nsamples = 2\nvalue = [0, 0, 0, 2, 0, 0, 0, 0, 0, 0]"] ;
129 -> 130 ;
131 [label="gini = 0.444\nsamples = 3\nvalue = [1, 0, 0, 0, 0, 0, 0, 0, 0, 2]"] ;
129 -> 131 ;
132 [label="mean_contrast <= 20.836\ngini = 0.34\nsamples = 10\nvalue = [1, 0, 0, 0, 1, 0, 8, 0, 0, 0]"] ;
128 -> 132 ;
133 [label="gini = 0.0\nsamples = 8\nvalue = [0, 0, 0, 0, 0, 0, 8, 0, 0, 0]"] ;
132 -> 133 ;
134 [label="gini = 0.5\nsamples = 2\nvalue = [1, 0, 0, 0, 1, 0, 0, 0, 0, 0]"] ;
132 -> 134 ;
135 [label="mean_mfcc12 <= 6.951\ngini = 0.663\nsamples = 56\nvalue = [4, 0, 0, 9, 30, 0, 6, 0, 4, 3]"] ;
113 -> 135 ;
136 [label="std_rolloff <= 758.546\ngini = 0.719\nsamples = 8\nvalue = [2, 0, 0, 0, 0, 0, 3, 0, 1, 2]"] ;
135 -> 136 ;
137 [label="gini = 0.0\nsamples = 3\nvalue = [0, 0, 0, 0, 0, 0, 3, 0, 0, 0]"] ;
136 -> 137 ;
138 [label="std_rmse <= 0.05\ngini = 0.64\nsamples = 5\nvalue = [2, 0, 0, 0, 0, 0, 0, 0, 1, 2]"] ;
136 -> 138 ;
139 [label="mean_mfcc8 <= -11.183\ngini = 0.444\nsamples = 3\nvalue = [0, 0, 0, 0, 0, 0, 0, 0, 1, 2]"] ;
138 -> 139 ;
140 [label="gini = 0.0\nsamples = 2\nvalue = [0, 0, 0, 0, 0, 0, 0, 0, 0, 2]"] ;
139 -> 140 ;
141 [label="gini = 0.0\nsamples = 1\nvalue = [0, 0, 0, 0, 0, 0, 0, 0, 1, 0]"] ;
139 -> 141 ;
142 [label="gini = 0.0\nsamples = 2\nvalue = [2, 0, 0, 0, 0, 0, 0, 0, 0, 0]"] ;
138 -> 142 ;
143 [label="std_mfcc4 <= 10.989\ngini = 0.564\nsamples = 48\nvalue = [2, 0, 0, 9, 30, 0, 3, 0, 3, 1]"] ;
135 -> 143 ;
144 [label="mean_mfcc10 <= -10.307\ngini = 0.72\nsamples = 5\nvalue = [1, 0, 0, 2, 0, 0, 1, 0, 0, 1]"] ;
143 -> 144 ;
145 [label="mean_mfcc4 <= -19.308\ngini = 0.667\nsamples = 3\nvalue = [1, 0, 0, 0, 0, 0, 1, 0, 0, 1]"] ;
144 -> 145 ;
146 [label="gini = 0.0\nsamples = 1\nvalue = [1, 0, 0, 0, 0, 0, 0, 0, 0, 0]"] ;
145 -> 146 ;
147 [label="gini = 0.5\nsamples = 2\nvalue = [0, 0, 0, 0, 0, 0, 1, 0, 0, 1]"] ;
145 -> 147 ;
148 [label="gini = 0.0\nsamples = 2\nvalue = [0, 0, 0, 2, 0, 0, 0, 0, 0, 0]"] ;
144 -> 148 ;
149 [label="std_mfcc0 <= 71.205\ngini = 0.479\nsamples = 43\nvalue = [1, 0, 0, 7, 30, 0, 2, 0, 3, 0]"] ;
143 -> 149 ;
150 [label="std_rolloff <= 1501.362\ngini = 0.318\nsamples = 33\nvalue = [0, 0, 0, 3, 27, 0, 2, 0, 1, 0]"] ;
149 -> 150 ;
151 [label="gini = 0.196\nsamples = 28\nvalue = [0, 0, 0, 0, 25, 0, 2, 0, 1, 0]"] ;
150 -> 151 ;
152 [label="gini = 0.48\nsamples = 5\nvalue = [0, 0, 0, 3, 2, 0, 0, 0, 0, 0]"] ;
150 -> 152 ;
153 [label="std_rolloff <= 1330.401\ngini = 0.7\nsamples = 10\nvalue = [1, 0, 0, 4, 3, 0, 0, 0, 2, 0]"] ;
149 -> 153 ;
154 [label="gini = 0.0\nsamples = 4\nvalue = [0, 0, 0, 4, 0, 0, 0, 0, 0, 0]"] ;
153 -> 154 ;
155 [label="gini = 0.611\nsamples = 6\nvalue = [1, 0, 0, 0, 3, 0, 0, 0, 2, 0]"] ;
153 -> 155 ;
156 [label="std_centroid <= 591.148\ngini = 0.781\nsamples = 105\nvalue = [36, 0, 8, 22, 5, 0, 12, 0, 2, 20]"] ;
112 -> 156 ;
157 [label="std_mfcc7 <= 6.668\ngini = 0.728\nsamples = 75\nvalue = [33, 0, 7, 7, 1, 0, 9, 0, 2, 16]"] ;
156 -> 157 ;
158 [label="mean_mfcc12 <= 6.608\ngini = 0.485\nsamples = 13\nvalue = [1, 0, 1, 0, 0, 0, 2, 0, 0, 9]"] ;
157 -> 158 ;
159 [label="gini = 0.0\nsamples = 9\nvalue = [0, 0, 0, 0, 0, 0, 0, 0, 0, 9]"] ;
158 -> 159 ;
160 [label="mean_rmse <= 0.151\ngini = 0.625\nsamples = 4\nvalue = [1, 0, 1, 0, 0, 0, 2, 0, 0, 0]"] ;
158 -> 160 ;
161 [label="gini = 0.0\nsamples = 2\nvalue = [0, 0, 0, 0, 0, 0, 2, 0, 0, 0]"] ;
160 -> 161 ;
162 [label="mean_mfcc11 <= 10.1\ngini = 0.5\nsamples = 2\nvalue = [1, 0, 1, 0, 0, 0, 0, 0, 0, 0]"] ;
160 -> 162 ;
163 [label="gini = 0.0\nsamples = 1\nvalue = [0, 0, 1, 0, 0, 0, 0, 0, 0, 0]"] ;
162 -> 163 ;
164 [label="gini = 0.0\nsamples = 1\nvalue = [1, 0, 0, 0, 0, 0, 0, 0, 0, 0]"] ;
162 -> 164 ;
165 [label="mean_mfcc3 <= 53.657\ngini = 0.685\nsamples = 62\nvalue = [32, 0, 6, 7, 1, 0, 7, 0, 2, 7]"] ;
157 -> 165 ;
166 [label="mean_contrast <= 22.207\ngini = 0.78\nsamples = 41\nvalue = [15, 0, 5, 7, 1, 0, 4, 0, 2, 7]"] ;
165 -> 166 ;
167 [label="mean_rmse <= 0.22\ngini = 0.806\nsamples = 24\nvalue = [4, 0, 1, 7, 1, 0, 4, 0, 2, 5]"] ;
166 -> 167 ;
168 [label="gini = 0.78\nsamples = 21\nvalue = [1, 0, 1, 7, 1, 0, 4, 0, 2, 5]"] ;
167 -> 168 ;
169 [label="gini = 0.0\nsamples = 3\nvalue = [3, 0, 0, 0, 0, 0, 0, 0, 0, 0]"] ;
167 -> 169 ;
170 [label="mean_mfcc6 <= -16.882\ngini = 0.512\nsamples = 17\nvalue = [11, 0, 4, 0, 0, 0, 0, 0, 0, 2]"] ;
166 -> 170 ;
171 [label="gini = 0.278\nsamples = 12\nvalue = [10, 0, 0, 0, 0, 0, 0, 0, 0, 2]"] ;
170 -> 171 ;
172 [label="gini = 0.32\nsamples = 5\nvalue = [1, 0, 4, 0, 0, 0, 0, 0, 0, 0]"] ;
170 -> 172 ;
173 [label="std_mfcc9 <= 7.01\ngini = 0.322\nsamples = 21\nvalue = [17, 0, 1, 0, 0, 0, 3, 0, 0, 0]"] ;
165 -> 173 ;
174 [label="bpm <= 144.166\ngini = 0.375\nsamples = 4\nvalue = [1, 0, 0, 0, 0, 0, 3, 0, 0, 0]"] ;
173 -> 174 ;
175 [label="gini = 0.0\nsamples = 3\nvalue = [0, 0, 0, 0, 0, 0, 3, 0, 0, 0]"] ;
174 -> 175 ;
176 [label="gini = 0.0\nsamples = 1\nvalue = [1, 0, 0, 0, 0, 0, 0, 0, 0, 0]"] ;
174 -> 176 ;
177 [label="bpm <= 154.773\ngini = 0.111\nsamples = 17\nvalue = [16, 0, 1, 0, 0, 0, 0, 0, 0, 0]"] ;
173 -> 177 ;
178 [label="gini = 0.0\nsamples = 16\nvalue = [16, 0, 0, 0, 0, 0, 0, 0, 0, 0]"] ;
177 -> 178 ;
179 [label="gini = 0.0\nsamples = 1\nvalue = [0, 0, 1, 0, 0, 0, 0, 0, 0, 0]"] ;
177 -> 179 ;
180 [label="std_mfcc6 <= 13.443\ngini = 0.693\nsamples = 30\nvalue = [3, 0, 1, 15, 4, 0, 3, 0, 0, 4]"] ;
156 -> 180 ;
181 [label="mean_mfcc2 <= -29.571\ngini = 0.483\nsamples = 22\nvalue = [0, 0, 0, 15, 0, 0, 3, 0, 0, 4]"] ;
180 -> 181 ;
182 [label="gini = 0.0\nsamples = 3\nvalue = [0, 0, 0, 0, 0, 0, 3, 0, 0, 0]"] ;
181 -> 182 ;
183 [label="mean_mfcc1 <= 104.782\ngini = 0.332\nsamples = 19\nvalue = [0, 0, 0, 15, 0, 0, 0, 0, 0, 4]"] ;
181 -> 183 ;
184 [label="mean_mfcc5 <= 18.548\ngini = 0.124\nsamples = 15\nvalue = [0, 0, 0, 14, 0, 0, 0, 0, 0, 1]"] ;
183 -> 184 ;
185 [label="gini = 0.5\nsamples = 2\nvalue = [0, 0, 0, 1, 0, 0, 0, 0, 0, 1]"] ;
184 -> 185 ;
186 [label="gini = 0.0\nsamples = 13\nvalue = [0, 0, 0, 13, 0, 0, 0, 0, 0, 0]"] ;
184 -> 186 ;
187 [label="std_rmse <= 0.041\ngini = 0.375\nsamples = 4\nvalue = [0, 0, 0, 1, 0, 0, 0, 0, 0, 3]"] ;
183 -> 187 ;
188 [label="gini = 0.0\nsamples = 1\nvalue = [0, 0, 0, 1, 0, 0, 0, 0, 0, 0]"] ;
187 -> 188 ;
189 [label="gini = 0.0\nsamples = 3\nvalue = [0, 0, 0, 0, 0, 0, 0, 0, 0, 3]"] ;
187 -> 189 ;
190 [label="std_zcr <= 0.064\ngini = 0.594\nsamples = 8\nvalue = [3, 0, 1, 0, 4, 0, 0, 0, 0, 0]"] ;
180 -> 190 ;
191 [label="std_mfcc5 <= 11.637\ngini = 0.375\nsamples = 4\nvalue = [3, 0, 1, 0, 0, 0, 0, 0, 0, 0]"] ;
190 -> 191 ;
192 [label="gini = 0.0\nsamples = 1\nvalue = [0, 0, 1, 0, 0, 0, 0, 0, 0, 0]"] ;
191 -> 192 ;
193 [label="gini = 0.0\nsamples = 3\nvalue = [3, 0, 0, 0, 0, 0, 0, 0, 0, 0]"] ;
191 -> 193 ;
194 [label="gini = 0.0\nsamples = 4\nvalue = [0, 0, 0, 0, 4, 0, 0, 0, 0, 0]"] ;
190 -> 194 ;
}